-4.1901836,10.108876,0.86019385,5.895268,5.4804626,7.6251493,4.684883,4.8511086,-1.5076277,-0.9735949,-1.3746755,1.7131001,1.3560501,1.7305247,-2.8583975,-1.5565616,0.54616207,-0.7986542,0.27572083,-0.63668764,-3.3378673,1.9190558,4.222177,-0.019733667,-0.44737592,-0.41931915,-1.1702812,1.6187329,-0.24117602,0.30654156,1.3517392,2.653295,-0.4090981,2.3068054,6.1214695,4.5903144,1.7804468,5.953346,1.2911828,5.202868,1.0102422,2.6249971,3.3967342,1.2190919,6.6437216,2.7262774,-1.7047601,-0.4357078,2.1712303,1.0192189,0.8682984,0.27160782,1.4727824,4.0442047,5.7414966,4.9782267,0.4293298,1.893276,0.79861164,4.1562977,4.1077065,4.2238894,3.9080048,3.0351183,7.3858747,3.4422874,5.811806,1.8925501,3.517748,1.5511216,-3.3091664,-8.97671,-1.0397651,-3.5834525,-3.3402474,-4.7049727,-3.1136916,-4.189826,-5.2616224,-1.0203638,-2.1293912,2.146122,-2.1463885,0.9745561,0.796149,2.174872,2.3740826,2.47529,1.3321618,2.366089,5.2057533,-2.1582284,-1.5661571,-0.8748468,-0.93816364,0.9609908,-0.46923614,-3.021467,5.3261046,2.3798192,2.6437685,0.16579735,4.1165624,-1.5366684,6.118227,2.6958272,3.4969969,2.3973942,-2.5245574,-3.2690954,-1.5601414,-2.310751,-3.3084815,4.7594447,0.58822864,0.45234355,-3.4553645,-1.7130674,4.125754,4.549178,2.0953054,2.198674,2.8933206,3.9928634,0.9186877,3.8606122,2.3991709,-0.82165426,-3.8959777,-1.5378051,1.1111848,-1.1850439,-2.2373543,-1.2723316,-0.11230406,-2.5726848,-1.1037977,0.25345826,-0.8838922,0.27339697,1.841812,3.088293,1.1452253,1.1933173,-1.231616,2.0244622,1.1601233,4.9361553,5.735046,3.0828123,6.116995,10.781816,3.5841475,-2.0885072,-2.0004752,-2.9207096,-2.1972055,-1.7415179,-1.4327669,2.4378273,4.212086,1.2842808,2.3777409,0.5793053,2.5824609,3.1775918,1.9727252,4.1900506,2.2724817,7.837391,3.6657362,2.304557,7.5987954,7.1413403,7.463082,3.4721596,1.003361,6.685089,2.560502,6.1355658,3.1663687,5.648915,1.9307125,2.4136407,3.8784575,4.3132267,2.1002991,2.7226558,-1.2618318,3.9871793,3.6616907,3.871612,4.5315633,0.25301194,-0.29407895,0.53821987,4.032471,2.7990632,2.9991565,4.5928907,0.67395425,-0.2224335,-2.747384,5.244014,0.9540553,-1.1374148,0.7654135,2.999093,2.8147175,2.824539,6.7191405,4.487329,4.069525,0.79154015,2.5285487,-1.2369273,0.4151407,-3.7107553,-2.2992184,0.99747235,-2.8000598,-1.2934122,2.5205765,3.0685568,2.571711,2.1192498,6.562457,0.37059033,6.722081,1.7547055,1.6220671,1.8282359,3.0210886,1.0413218,2.5528507,2.2330313,4.5620823,4.9848995,4.7032466,1.8418308,1.6947865,3.4233463,1.4966047,5.545736,3.6334782,-0.75082105,2.8467386,4.261159,0.7308684,5.2960753,3.1460145,6.2307205,1.5082837,-2.6872396,7.733792,2.6965148,-0.20498163,-0.21785602,2.9356003,2.5402,0.73284084,2.1216779,-2.5926542,3.0416493,3.7508643,2.8742843,-0.60720134,-0.65156025,1.6276636,3.7172852,1.7879289,1.7001083,2.3007126,1.300389,5.0197344,0.9652554,-0.8360671,2.1511796,1.7496371,-0.02854371,0.45991725,3.3396437,2.9850698,4.0277777,0.5467018,5.926009,4.7757916,6.1671014,4.5342526,4.280037,0.6854943,5.029579,3.1716268,5.248316,1.1250875,3.7883935,0.29945663,4.8304296,-4.485254,-2.0130713,-4.33066,-5.1026955,-4.292388,-2.433042,-3.632482,-4.833389,-5.8628774,1.5366967,-6.0742183,-4.038852,-2.099021,-2.2217522,-1.5654666,-2.4007382,-3.3931832,-0.5064695,-2.396214,0.12942547,-2.7752705,-4.135006,-6.0169587,-7.3808327,-4.4005723,-2.6003516,-2.813557,-3.0056386,-4.714284,-3.9199023,-0.0847404,-2.6694217,2.6367052,-0.16250426,-0.8698621,-1.0840298,-1.1305877,-1.4281301,2.239003,0.51182854,5.551697,0.80072904,7.192153,2.4343998,0.88810074,-1.259076,-3.3731956,2.9650028,6.397345,3.4326115,0.6929859,2.624504,1.92268,1.1938176,0.73155105,2.5953126,1.281184,3.5373747,3.5412793,5.2960033,3.2842727,4.497484,6.4793673,6.628689,-0.577466,1.9444845,1.008952,-0.009599626,-1.938045,-6.3600135,-2.6593356,-0.41713113,-4.756358,0.75997937,0.761498,-1.9081082,0.12732738,-0.6517399,-1.4784031,-0.05727379,-0.81759363,0.5200752,0.40330997,1.0317416,-1.8472598,0.29457757,-2.4259079,1.3246676,4.6141615,4.1338725,1.985542,-1.5020657,14.626725,4.283181,10.955604,-1.6061977,-0.20342326,11.560261,11.891919,-4.1445804,8.359671,-2.1249444,-1.1191984,-3.9924264,-4.2724495,-1.839648,-0.82322997,-1.5247433,-0.3378893,-6.85966,0.2791423,3.4204783,-0.643551,-0.023741603,-1.4487789,0.59932345,3.0697627,-3.3044157,-3.8516536,2.1856303,-2.909917,-1.5917019,2.1973894,0.6496415,0.7656302,2.4945683,-1.3631032,-2.7071552,-3.2079296,-0.5335287,2.0350525,0.65724945,0.07183556,-2.3437192,-2.387677,-4.3259273,2.528997,-1.4540129,-0.5776699,-1.2201847,0.4390627,-0.3257106,-2.669651,2.0636532,3.5195806,2.0423148,-1.4818923,-0.18023512,4.2409377,-1.6189693,6.016502,1.6419901,2.5188642,-3.6202383,2.1299243,-0.63000506,-5.059469,-2.2925103,-3.3948443,3.4895744,-0.035357952,-3.0672605,-3.0687044,2.6191847,-0.6630054,-4.405752,2.5600162,5.8602767,-1.9330149,-4.2579665,-2.3586257,-2.807425,0.25233084,-2.4602256,2.533525,6.128637,2.234253,-3.2345266,2.7993758,1.1907263,-0.45232934,-0.14298022,2.2887692,-1.0154561,1.8529952,0.94847727,-2.122612,3.0784154,0.5033523,-5.535847,1.3996261,2.6794577,0.10705578,-0.7626886,-0.32266754,-4.146651,-5.9658165,2.7957358,-5.4095845,-3.6838822,-4.1794677,-5.746563,2.5898619,-6.029059,-0.97702146,1.9957485,2.7030582,2.0001526,-0.7471197,-0.55969405,3.7619023,-1.4453341,-6.5371127,0.6258415,-0.557806,2.6890156,2.8212826,0.85888994,2.6497703,-2.776579,-4.5044117,0.43084645,-0.08761537,-3.6658192,-2.030809,-1.1219182,0.9434408,-2.0412805,2.531227,-3.756452,-3.2455661,2.1661322,-0.5818881,-5.5314493,0.14068389,-1.8283687,-3.5184555,-4.822904,1.3215615,1.9373007,-0.5804322,-1.3187721,-0.16173983,-0.1590069,2.0480409,0.15608704,3.0667498,-0.0075564384,2.489352,-2.6871185,-9.680408,-2.2106867,-1.8330944,-5.942418,-2.7779012,-1.5591687,-3.3547664,-0.2276386,-3.08122,-3.8987684,3.028431,0.09210646,-2.9719708,-1.8411462,-4.7295628,-0.9487517,1.1717167,-3.9334633,-9.060705,2.9048824,-0.7785509,-1.4676979,-4.130306,-0.751873,0.39451352,2.0983968,-1.7296032,-1.4587866,1.145933,3.019071,4.931025,-3.4311023,-7.3693004,-3.1344018,-2.185252,-4.2135663,-0.6202513,-1.1847,-1.0695676,1.3200294,4.5502834,-0.29621863,1.0094948,3.1676345,-1.5832381,-2.5110328,-0.7199973,-0.9531622,-2.7139778,5.9094815,1.3516088,-0.7617182,0.84223044,2.9798975,-1.6431473,3.1297467,0.23589998,-0.661587,-0.36221093,4.8011317,-6.1633024,-2.7703764,1.3317529,0.8131004,-1.9115027,-2.3342094,0.27032936,-3.2693489,-1.1302315,3.170323,-3.5538666,1.5772548,-2.1373522,0.12825549,-3.7874494,-0.92892075,1.7898619,-3.0268867,-1.8725466,1.9437377,-1.2534807,-1.7424676,-4.0462885,0.9629102,0.08651137,1.1963348,5.4692626,-1.9613346,3.4747753,0.17767975,-1.6176553,3.6168718,4.831472,-4.8247275,-1.4394603,-2.995107,-0.96952194,-2.103588,-2.2266393,-0.6354052,-1.6815126,-5.8405476,-0.5641063,-2.1307192,-3.030869,-0.64585364,1.1226661,-2.6902592,-0.4662571,-0.9583156,-1.1690023,-3.5848596,-0.6084652,-1.7407355,-0.8985111,-1.6388426,-3.9968956,0.27513564,-1.265127,1.1945252,-0.7539979,-4.44466,-1.8071458,-0.8774634,3.594458,1.5085598,-1.250402,1.8761675,-4.8247848,7.82892,-0.6604339,3.6487942,-1.2683206,3.4103494,-1.2810886,-2.9219208,-3.3856025,3.8249066,-2.3959408,0.8659774,-8.398884,-3.3943188,-3.2122662,5.606989,1.1040833,-1.6654602,4.2305975,0.8836473,1.8324646,-2.0075083,-3.9642544,-3.775618,-1.4471143,2.0804226,-0.28198615,-0.14517987,1.4691614,-1.2375965,-7.1409416,-0.1994456,-0.43626392,0.49094984,-2.9410734,0.4908282,-3.3403747,-0.28437734,-4.638567,-2.0420902,-0.7800401,-3.6820822,0.667588,1.2437029,-0.056111574,-2.6353664,-2.8703227,-1.5094265,2.5397525,-0.25116777,0.88393825,3.5411377,1.0318933,2.9847734,-5.368986,0.87276566,-1.144484,1.7228115,4.4159765,-3.3188481,-2.4432504,-1.7986324,0.32566535,-0.7053291,2.7189448,1.4386536,-1.9468575,-3.2248566,1.5952954,1.6371148,-2.9213636,-0.46977878,0.20840484,-2.0185199,-0.173626,0.1019603,1.9424634,0.75833493,-4.1374593,-0.1440657,-1.4975501,1.805864,-0.81417704,9.089398,2.0923615,-2.5819354,0.495265,0.7752201,5.576978,4.3038483,-0.6061224,-0.60097915,-5.208678,2.2206597,-1.6082346,0.902778,0.39839038,-0.9810203,-0.34138483,1.4758236,4.7717595,-2.3478746,4.5378103,-0.99315614,-4.131961,1.2017899,-0.72511137,0.08166149,0.62592864,0.008035898,1.9907652,-1.2538118,4.02655,-1.5051092,-0.06402519,-3.4688678,-3.704237,-1.891233,2.4429495,-5.4942684,-1.7770333,-1.1068563,-0.7282541,-0.02853039,-1.1430621,-1.7249887,7.886333,-2.857247,-2.9067588,-2.1881788,0.59094673,-2.7160566,2.8762517,2.7106616,-0.21727619,-2.3188777,0.7686733,-3.3272052,-0.7913364,3.6508532,-5.220187,2.7646978,1.2831874,2.1954927,-1.3919015,-8.657447,0.67210174,0.24357319,0.62576413,-0.32552814,-4.1811123,1.4365726,-1.3096645,-0.811394,-4.408716,-1.4339812,0.86148953,-4.501287,0.8374114,0.40884018,2.8376184,6.753415,4.3675985,5.397401,-2.137791,-2.4058146,-0.8179512,7.2561755,-1.117737,-0.5062758,-2.3820634,1.0587453,-0.69254255,-0.71477646,-0.44816387,-2.4313595,2.273862,0.7144621,0.8486306,-4.619235,0.46387076,-1.4487948,-6.2016034,-1.9352068,-1.4228129,-2.3420343,0.8403292,2.5523238,0.2977605,-2.866266,-5.6755733,-1.2476568,-5.5015755,0.8953438,-2.4368794,0.35056463,3.2579556,0.3153596,-6.523791,-4.8931684,1.392902,1.6962998,-3.154211,-3.604096,-1.1115403,2.5232255,-5.6617603,-1.6809814,-1.2022498,-3.1258364,-2.0180442,-3.034408,-2.435471,-4.718645,-4.4241157,0.020054996,-2.971032,-3.2942824,-1.0836203,-3.1291194,2.0947843,-0.43449235,0.7606312,4.0136976,1.6505283,-7.4353404,0.79871815,1.9335256,-4.833132,1.3850673,-1.9208993,-0.67912555,0.25972462,-2.4635687,-2.0982163,0.47868162,-3.0649743,3.785021,2.3915927,2.0516593,2.437792,-2.4790056,-2.4405968,0.36585364,-1.3361007,-7.3502965,-2.1306865,-6.1592803,0.18001086,0.24707921,-1.7777219,-1.80889,-1.5936697,-3.3925586,1.8278675,0.92829967,-2.8175135,-0.65022326,-1.5801184,0.78599787,-4.638524,-1.8013084,-0.9928275,-2.23963,1.443208,-3.3217664,-4.4372587,-1.209907,0.3569758,-2.9657817,-2.1809707,-3.3300173,-0.29498565,0.08314216,-2.3476286,-2.7859976,-1.1017519,1.6179992,-3.130428,0.9160262,-0.21326071,1.635922,1.6536208,-1.7047386,-0.46611607,1.306035,-0.35659266,-3.2554793,-2.891038,-2.5166817,3.8376708,-1.7875246,-1.9924068,1.0638328,-0.11509225,1.2961063,1.1476063,1.4093115,-0.31099194,-1.4793282,4.713506,4.3657,4.3588066,3.9177713,-0.54469824,-2.2491403,0.6335944,-3.0292823,0.6327864,-3.3557098,-6.4050617,-2.4497168,0.122036576,-0.9764892,-4.1619596,0.12720823,-4.3111315,-3.3853798,-2.3248367,0.8661981,-0.013527334,0.5157697,3.2680578,0.6180281,0.26163632